
\data\
ngram 1=68
ngram 2=132

\1-grams:
-0.4299927	</s>
-99	<s>	0.04813942
-2.102091	a	-0.09930659
-2.102091	ad	-0.09930659
-2.102091	ang	-0.09930659
-2.102091	as	-0.09930659
-1.925999	ba	-0.2753979
-2.102091	bi	-0.09930659
-2.102091	bos	-0.09930659
-2.102091	bun	-0.09930659
-2.102091	da	-0.09930659
-2.102091	di	-0.09930659
-2.102091	did	-0.09930659
-2.102091	du	-0.09930659
-2.102091	eng	-0.09930659
-1.925999	ga	-0.2753979
-1.624969	ha	-0.5764279
-1.925999	han	-0.2753979
-2.102091	hang	-0.09930659
-2.102091	hog	-0.09930659
-2.102091	i	-0.09930659
-2.102091	ka	-0.09930659
-2.102091	kaw	-0.09930659
-1.925999	ko	-0.2753979
-2.102091	kod	-0.09930659
-2.102091	ku	-0.09930659
-1.925999	la	-0.2753979
-2.102091	law	-0.09930659
-1.801061	li	-0.4003366
-2.102091	lish	-0.09930659
-1.801061	lo	-0.4003366
-2.102091	log	-0.09930659
-1.801061	ma	-0.4003366
-2.102091	mag	-0.09930659
-2.102091	me	-0.09930659
-2.102091	mga	-0.09930659
-2.102091	mo	-0.09930659
-2.102091	mus	-0.09930659
-1.801061	na	-0.4003366
-2.102091	nak	-0.09930659
-2.102091	nan	-0.09930659
-2.102091	nang	-0.09930659
-2.102091	nga	-0.09930659
-2.102091	ngan	-0.09930659
-2.102091	ni	-0.09930659
-2.102091	ning	-0.09930659
-2.102091	nom	-0.09930659
-2.102091	nu	-0.09930659
-2.102091	o	-0.09930659
-2.102091	pa	-0.09930659
-2.102091	pat	-0.09930659
-2.102091	pi	-0.09930659
-2.102091	pon	-0.09930659
-2.102091	pu	-0.09930659
-1.925999	sa	-0.2753979
-2.102091	si	-0.09930659
-1.704151	ta	-0.4972466
-2.102091	tag	-0.09930659
-1.704151	to	-0.4972466
-1.925999	tu	-0.2753979
-2.102091	u	-0.09930659
-2.102091	ud	-0.09930659
-2.102091	ug	-0.09930659
-1.925999	wa	-0.2753979
-1.925999	ya	-0.2753979
-2.102091	yam	-0.09930659
-2.102091	yo	-0.09930659
-2.102091	yong	-0.09930659

\2-grams:
-2.201397	<s> a
-2.201397	<s> ad
-2.201397	<s> ang
-2.201397	<s> as
-1.900367	<s> ba
-2.201397	<s> bi
-2.201397	<s> bos
-2.201397	<s> bun
-2.201397	<s> da
-2.201397	<s> di
-2.201397	<s> did
-2.201397	<s> du
-2.201397	<s> eng
-1.900367	<s> ga
-1.502427	<s> ha
-1.900367	<s> han
-2.201397	<s> hang
-2.201397	<s> hog
-2.201397	<s> i
-2.201397	<s> ka
-2.201397	<s> kaw
-1.900367	<s> ko
-2.201397	<s> kod
-2.201397	<s> ku
-1.900367	<s> la
-2.201397	<s> law
-1.724276	<s> li
-2.201397	<s> lish
-1.724276	<s> lo
-2.201397	<s> log
-1.724276	<s> ma
-2.201397	<s> mag
-2.201397	<s> me
-2.201397	<s> mga
-2.201397	<s> mo
-2.201397	<s> mus
-1.724276	<s> na
-2.201397	<s> nak
-2.201397	<s> nan
-2.201397	<s> nang
-2.201397	<s> nga
-2.201397	<s> ngan
-2.201397	<s> ni
-2.201397	<s> ning
-2.201397	<s> nom
-2.201397	<s> nu
-2.201397	<s> o
-2.201397	<s> pa
-2.201397	<s> pat
-2.201397	<s> pi
-2.201397	<s> pon
-2.201397	<s> pu
-1.900367	<s> sa
-2.201397	<s> si
-1.599337	<s> ta
-2.201397	<s> tag
-1.599337	<s> to
-1.900367	<s> tu
-2.201397	<s> u
-2.201397	<s> ud
-2.201397	<s> ug
-1.900367	<s> wa
-1.900367	<s> ya
-2.201397	<s> yam
-2.201397	<s> yo
-2.201397	<s> yong
-0.30103	a </s>
-0.30103	ad </s>
-0.30103	ang </s>
-0.30103	as </s>
-0.1760913	ba </s>
-0.30103	bi </s>
-0.30103	bos </s>
-0.30103	bun </s>
-0.30103	da </s>
-0.30103	di </s>
-0.30103	did </s>
-0.30103	du </s>
-0.30103	eng </s>
-0.1760913	ga </s>
-0.07918125	ha </s>
-0.1760913	han </s>
-0.30103	hang </s>
-0.30103	hog </s>
-0.30103	i </s>
-0.30103	ka </s>
-0.30103	kaw </s>
-0.1760913	ko </s>
-0.30103	kod </s>
-0.30103	ku </s>
-0.1760913	la </s>
-0.30103	law </s>
-0.1249387	li </s>
-0.30103	lish </s>
-0.1249387	lo </s>
-0.30103	log </s>
-0.1249387	ma </s>
-0.30103	mag </s>
-0.30103	me </s>
-0.30103	mga </s>
-0.30103	mo </s>
-0.30103	mus </s>
-0.1249387	na </s>
-0.30103	nak </s>
-0.30103	nan </s>
-0.30103	nang </s>
-0.30103	nga </s>
-0.30103	ngan </s>
-0.30103	ni </s>
-0.30103	ning </s>
-0.30103	nom </s>
-0.30103	nu </s>
-0.30103	o </s>
-0.30103	pa </s>
-0.30103	pat </s>
-0.30103	pi </s>
-0.30103	pon </s>
-0.30103	pu </s>
-0.1760913	sa </s>
-0.30103	si </s>
-0.09691001	ta </s>
-0.30103	tag </s>
-0.09691001	to </s>
-0.1760913	tu </s>
-0.30103	u </s>
-0.30103	ud </s>
-0.30103	ug </s>
-0.1760913	wa </s>
-0.1760913	ya </s>
-0.30103	yam </s>
-0.30103	yo </s>
-0.30103	yong </s>

\end\
